 1.30985399e-05
 -3.23696155e-06
 -9.94575585e-05
 3.74387409e-05
 -6.21278078e-05
 -1.69373204e-05
 6.52773987e-05
 3.71847736e-05
 3.14099510e-05
 4.14943281e-06
 -7.97608679e-05
 -5.05515439e-05
 -1.59978162e-05
 7.15802580e-05
 5.10613080e-05
 -8.87704919e-05
 2.40927606e-05
 -4.63387861e-05
 5.91512279e-05
 -6.28560832e-05
 -7.22056941e-05
 -2.38663021e-05
 -7.38631159e-05
 6.04502982e-06
 -4.40698955e-05
 2.44673896e-05
 -4.37021303e-05
 8.53268924e-05
 -1.43328044e-05
 -7.16778119e-05
 3.68024112e-05
 -9.50082273e-05
 -9.40668565e-05
 1.52378017e-05
 -5.30820257e-05
 4.43698577e-05
 3.61708560e-05
 2.96900285e-05
 4.80550961e-05
 -3.52849680e-05
 -7.43481105e-05
 -8.97766916e-05
 1.50804235e-05
 -7.06276698e-05
 -8.13560713e-05
 -1.70701091e-05
 -5.96818051e-05
 9.04142490e-05
 -7.62093421e-05
 3.79594921e-05
 -9.19477376e-05
 1.55035874e-05
 -3.42772010e-05
 -9.13794536e-05
 -1.83615186e-05
 -1.04372982e-05
 -5.84855735e-05
 6.97922726e-05
 -6.37486863e-05
 -9.98671394e-05
 -9.95447800e-06
 4.58800883e-05
 2.58089436e-05
 -6.85595790e-05
 -8.01877909e-05
 -3.42913518e-05
 1.60958919e-05
 -1.53339400e-05
 -1.72993080e-05
 4.87561505e-06
 3.20919432e-05
 8.47528236e-05
 -1.43471623e-05
 -4.78182798e-05
 -6.02721022e-05
 2.16815017e-05
 1.14777910e-05
 -9.41457368e-05
 -3.12181954e-05
 -3.69402327e-05
 -5.53463546e-06
 -1.95473925e-05
 3.36473066e-05
 -7.16752087e-05
 -6.12949214e-05
 1.15682335e-05
 8.62078718e-05
 4.40823793e-05
 9.90898938e-05
 -8.50698522e-05
 2.18002924e-05
 -9.10264127e-06
 -3.92316983e-05
 -2.66554188e-05
 1.92445435e-05
 -3.94144968e-05
 6.06253054e-05
 -6.12521831e-05
 -5.11678233e-05
 6.10254223e-05
 5.09174112e-05
 1.12116252e-05
 9.77912722e-05
 -5.32383730e-05
 1.04541834e-05
 -7.76110963e-06
 7.07511441e-05
 4.90837565e-05
 7.01081305e-05
 -4.03769678e-05
 -9.75517427e-05
 -7.50591108e-05
 -8.75356397e-05
 1.54161583e-05
 3.13542380e-05
 -6.53403807e-06
 -6.34181789e-07
 -5.75804011e-05
 9.43960981e-05
 5.24181871e-05
 8.62166797e-05
 5.48929306e-05
 -8.09078886e-05
 -8.59722174e-05
 -6.40687077e-06
 2.81590663e-05
 -9.63762952e-05
 -6.22589984e-05
 -2.71649503e-05
 -1.49028754e-05
 -9.88481480e-05
 -7.48473646e-05
 4.54138348e-05
 2.81568214e-05
 4.31891805e-05
 7.59572907e-05
 -1.93499659e-05
 5.56083844e-05
 -2.92569488e-05
 3.72234333e-05
 -3.04952278e-05
 -2.90390650e-05
 7.96477031e-05
 -1.80678168e-05
 6.41191412e-05
 8.86148607e-05
 1.96482799e-06
 -6.09054077e-05
 4.17441839e-05
 -4.81939724e-05
 -5.49166095e-05
 6.35096116e-07
 -4.40381799e-05
 -4.39168828e-05
 5.27536697e-05
 -8.62193343e-05
 8.86367734e-05
 2.62505475e-05
 9.15852504e-05
 1.80750600e-05
 -5.17074296e-06
 -9.93728431e-05
 3.13205679e-05
 1.03374482e-05
 -9.91590806e-05
 4.99591977e-05
 4.85930154e-06
 -8.29943162e-05
 3.33280719e-05
 -8.98193660e-05
 -9.11515424e-05
 1.99030982e-05
 -7.04451936e-05
 2.36990555e-05
 -7.40844369e-05
 6.61471020e-05
 4.80214656e-05
 6.88143498e-05
 4.77393584e-05
 -6.89376139e-05
 9.55700312e-06
 2.71485187e-05
 8.63369889e-05
 -8.29297690e-05
 3.22594779e-05
 -2.79739363e-05
 -8.34634835e-05
 -4.41499259e-05
 5.41492044e-05
 2.42108841e-05
 9.49090606e-05
 9.75657745e-05
 4.57267548e-05
 9.92081352e-05
 6.16590603e-05
 -5.06163658e-05
 5.79277088e-05
 -2.29664612e-05
 1.02327623e-05
 2.51558441e-05
 -7.62920316e-05
 -5.75172407e-06
 -6.64221142e-05
 -5.80255842e-05
 7.69354052e-05
 4.46785011e-05
 -6.76486173e-05
 1.01921448e-05
 -2.97142939e-05
 9.01176271e-05
 6.31900138e-05
 6.86868095e-05
 -7.11422801e-05
 7.93667146e-05
 -2.75563769e-05
 -6.39755861e-05
 -2.39275233e-06
 3.67701421e-05
 -5.56318103e-05
 -7.34790841e-05
 5.34332347e-05
 -6.37348279e-05
 -4.26506606e-05
 7.33073736e-06
 4.97977952e-05
